function [y1] = myNeuralNetworkFunction(x1)
%MYNEURALNETWORKFUNCTION neural network simulation function.
%
% Auto-generated by MATLAB, 12-Oct-2020 19:43:15.
%
% [y1] = myNeuralNetworkFunction(x1) takes these arguments:
%   x = Qx25 matrix, input #1
% and returns:
%   y = Qx1 matrix, output #1
% where Q is the number of samples.

%#ok<*RPMT0>

% ===== NEURAL NETWORK CONSTANTS =====

% Input 1
x1_step1.xoffset = [0;0;0;0;0;0;0;0;0;0;0;0;0;0;0;0;0;0;0;0;0;0;0;0;0];
x1_step1.gain = [1.39041122460759;1.38812655820964;1.38812655820964;1.38812655820964;1.38812655820964;1.45794070854748;1.45794070854748;1.45794070854748;1.39041122460759;1.35161249774115;1.39041122460759;1.45794070854748;1.39041122460759;1.35161249774115;1.3939105720613;1.33706815201692;1.39041122460759;1.35161249774115;1.33706815201692;1.33706815201692;1.33706815201692;1.35161249774115;1.35161249774115;1.38812655820964;1.33706815201692];
x1_step1.ymin = -1;

% Layer 1
b1 = [-1.7316814685671026997;1.5987787141134193192;-3.2435819878634437607;-1.4095272241093308452;-0.27666999810016518202;-2.2777435373507839422;1.137522529416820305;-2.6060230071972210197;1.8438744682110257411;2.7419238441033941811;0.65077179898421810833;-1.6555418546381914791;-0.41331371164268315699;-0.31841914874732846208;-0.98769971395788236368;-1.8159161062306710122;0.15127293591791149407;1.3970861236047316112;0.41121513456127112285;-0.27520737259359695503;0.6719370714890346985;0.69446128096695725063;-0.9829224880241718143;0.19990630192722880221;-3.7668447761438357269;1.2988376212134695731;3.637822235260410153;-1.2088396051443135448;1.6160370658470952776;-3.9372508980824245661];
IW1_1 = [0.31698192920922546589 -0.010329106112987169325 0.034515597636814880633 0.3322002956908080562 -0.27427389911083183138 -0.3237191773708322784 0.48848989785547836107 0.4713576749254491105 0.32352276458765510947 0.56537359640296258601 -0.29840686034568519869 -0.047976750117534439077 0.29539514262404820144 -0.24564843028223729005 0.54316436113289989773 0.4030158564669428789 0.43767861765128918128 -0.21871547411864841748 0.093000369861343315514 -0.092772607074743773659 0.56283431783904447343 0.16607109127695038331 -0.34829490861364453824 -0.07362168693745574366 -0.074439048887376360608;-0.26324461779498231628 -0.25807122803453175219 0.11367509819984621122 -0.40538880911531033346 0.43882275880760746034 -0.54982785474697293271 -0.10438715594088790461 -0.13907258247099432702 -0.37404149083920079644 -0.15123820746225219436 -0.66668931369965089839 0.44643380289013123718 0.23548492839896317808 -0.030142783938623345097 -0.31310121887308711708 -0.20143087800306883062 -0.02285250195932462744 0.52375432379017106133 -0.35090282087551888379 -0.31089456755034899915 -0.50944597854872830656 0.086779284685908369967 -0.37086896457864482191 -0.28539303291520384809 -0.092936583586970059057;-0.032010781787003887711 -1.0749755803530702813 2.2470131893775167065 -0.9011175465363189252 -1.2081405734178458644 1.1274750508779387559 0.55683346331148342312 1.5018930462951070037 -0.97948674874607866148 -0.69993261848926580093 -0.72740257188318513393 -0.88682191081937222776 -1.0824322745336778517 -0.30022087884037779171 0.28109943747701460204 1.6023280592553053037 -1.0169272967596771906 0.83799058642895685178 -0.93661483377602261502 -0.85874551161905532393 -0.9543401325027985882 -0.60368354269071344831 -1.0296848772725437637 0.078963663581759879762 0.61754462200700899199;0.24095316290622229016 0.25813609348887223138 0.43699904115735649368 0.57485899146541330484 -0.043541815444441592242 0.29288612842118655344 -0.30571291843658088272 0.41700941614700748339 -0.18780392221254726959 -0.0075497227773951456828 0.35430164385633894364 -0.017884386697071642108 0.57274474770701921944 0.55522389915329528609 -0.079633441399867804789 -0.10789682994682764372 0.12150528070983723783 -0.098413269523604449129 0.60485239931939693836 -0.38870097768636674429 -0.17673539889608769204 -0.18481738232766259378 0.42532529428530957416 0.48768827819839632998 -0.065980426944404049761;0.4811183455674867826 0.2372666083265068393 0.062644038576552069086 -1.6537155787803727858 -0.25491346066228759426 0.73669891049648461578 -0.9240139240379564578 0.4915510946794146574 0.61618507689384394155 -0.61264082267749453425 -0.36348511715924708421 -0.0090860338823077618775 0.79644780539537074482 0.88516052856769145141 0.60345513798498451319 0.77625480188875506382 -0.47691138657966142267 -1.1955183574490984011 0.62217867081145050712 0.32716612392716953872 -1.2809128983924078504 -1.0762135269668335891 0.85267972627775834304 0.29516814312712985613 0.38163633279891501227;1.3206263549782579769 1.071588794369934261 -0.068460280250139768365 1.3411008595500304441 -0.95722072481473541306 -0.6795215652656163563 0.89159451975612380448 -0.17436133998020464375 -0.90425913066124885553 -1.1223445633467719063 -0.44213675966437893106 0.38079513306748802304 -0.596617566202314209 -0.80104338975447730853 -0.32869926336585708615 -0.93237818741845113202 0.96525171836329615171 0.0085223406872872182333 -0.54421877358657777535 -0.72471285099797810858 -0.76280411844208062533 1.4699304932208674401 0.0053775810050334296036 -0.73118746758928776508 -0.69549334709895993534;-0.42293329580816868551 0.030489087085633616303 -0.021676105797356338273 0.28413357487767915144 -0.02473611212120800304 -0.12563344341952076277 -0.52500720669845091226 -0.40698879543274735227 -0.057763064632720052816 0.29122255926553397565 0.0052608054087562297271 -0.41832443554126430563 -0.13476656909367382142 -0.4967815267922910949 0.28028440588847086667 -0.35331132274651344538 0.02511670968259159531 -0.61679450756714060411 0.08025691518095243171 -0.01025428507241333588 0.32652526089450700786 -0.52079050027577555859 -0.29016169087720844466 -0.019877154624511658709 -0.62328703493591852691;0.49127014177366057357 1.3900058252255076408 -0.97480292477901342441 -1.9447343271087664807 1.0193619159503435334 1.7367695386652344247 -1.1661266837495476434 -0.075860811872769301489 -1.0480921329357646421 -1.1141267381596122732 -0.83834166232101636762 -1.0654831168785243722 -0.9547391024224970435 1.423862132882427245 0.59256833206405445935 0.1334255704311184676 -1.0091495629032141146 -1.0201131733955142167 2.3814623955516722731 -0.53149039028933064976 1.5154835108200919169 0.44597775072988565803 -1.1617556631926655442 -1.09010188437257316 -0.91132914656217367533;-1.0399645513316269074 -0.59013665536786985566 -0.43022838044326344731 -0.35594918828538196776 -0.71603073881205581142 -0.63335307213115943359 0.88512359112770266911 0.11355410959696103645 -0.042461803081867782739 1.3231835741748270152 0.53951884489675239198 0.92850313967285724726 0.83016095436589931733 -0.92632969705879386613 0.83918247835994030925 -0.090914449269756170136 -0.5367477252305870028 -1.3223530893810675479 -0.10254138190126686758 0.9045435231427292333 0.95382377844086763119 0.81724500047521519974 0.17433953097111215547 0.59140538810700371553 0.89768570705403138987;-2.1725027942979693307 1.3961833417898428245 0.58000710787681253322 -1.2173751688955569694 -1.3161822539400633847 -1.2196383392795835388 1.5423007012319427389 1.5447141423596739696 1.4613886173307890637 0.5973709768103898643 -2.0962626829057948719 0.77479562256989442659 -1.8909079038008775875 1.189434144627284029 1.4566871721653751326 0.29110222832769117041 -1.8641932915244678881 1.4744520176191409089 1.7274956996180428348 -1.1418014470899096047 1.3690616128516424066 1.1005578408697451742 -1.5156634431527284956 0.8850873366498348549 1.2327026125117663824;0.74252870125678627211 1.313379157079719084 0.99586950356012460261 0.99028932531543445439 -1.0005258926247753148 -1.3424864666970095506 1.1551110182002970461 1.0303593218397018028 -0.78120716236650278308 -0.55499874307518892724 0.56796571591127342771 -1.4697486958896339715 -0.14637371809271518264 1.1259583576876768252 1.0913752703579104875 -0.070150905791638656916 -0.25233840139314556161 -0.59191118808573828236 -0.33842385143566988681 -0.32007955550735645023 -0.7537037455625330562 -1.6011355754326739298 -0.38579389403694869243 1.1295886145552891389 0.77226978466254025957;-1.3494650767269591451 -0.61052613252275322875 2.1188578835960210078 1.5006577684988489096 -1.6881773640872750342 -0.90897062078563828358 0.89665706719937954272 -1.2960185025950372584 -1.5436902413406190515 -1.3159986786360053923 1.940039594279412638 2.1612542737233493284 0.55752090691280575818 1.571098325986119093 -1.3027260845808612544 -1.4905862908485842944 -0.67486442009199942849 0.65289846415431262994 1.4121150872119450081 -1.0500935760672922559 -0.21906351473128224394 -1.46573710100953436 -1.5465937844920458755 -1.4205913663346683151 1.9590234059533719879;0.55625907330626300773 0.11253627154336547089 0.17490199724166113904 0.50857983879866786037 0.22422029643009902533 0.23199764460957111867 0.3117613600254134365 0.075060743856149539366 -0.43287467244850824644 0.54126548939704455243 0.24306783823502889352 -0.090521963805337710141 0.43845571330736732296 -0.44330304282735194521 0.078047665100066193622 -0.10955807890272947769 0.60840887819995370656 0.43369920734617284364 0.20802997433084577383 -0.18308290932200649292 0.087300833114847695149 -0.28357531847482503329 0.51387180043058711121 0.53515410322590795111 0.29434651663684768819;0.43998793374463618377 -0.19149712561959442159 0.12410332622866832031 -0.23305217386347970576 -0.29272932113275257349 -0.30838978027482905064 0.51510998624360959663 -0.22626840839487105672 -0.035577822974048954607 -0.014983064519706603204 0.26928204584324433313 0.28413370217615613322 0.48229904336278295318 0.45591269282350038727 0.19923803109413698587 0.027994466750042953929 0.34914963173819596465 -0.19767038568179845504 0.461362776479334602 0.087512062456216122008 0.58955938817698760879 0.52110417953469501118 0.52781960939140559752 0.46349577318423251793 0.51040809761692751412;0.023427668539905625866 0.93031058115719900137 -0.92471876843345846009 0.27953831052139260782 -1.0063695072620342241 -0.72977077870483653133 -0.44574242784694451114 -0.23394840916539799691 0.65215670789601487556 -0.13201763541207994779 -0.40566328265313483792 0.65992437774198764444 -0.91428094140338267426 -1.0047325851732724633 -0.33476618042477673809 -0.10858779985157913928 -0.28266985271053479689 -0.50739290869562470032 1.1655361184823600507 -0.84155769514721168179 0.5428754931971371267 0.83899825937282235255 0.85175211722092025735 1.2735760780730647213 -0.90280396369021820302;-1.2776835847617580288 0.89448767442829435481 -0.95136030826182327313 -0.046755642899825367031 0.15536793706626569889 -1.0573643055363568521 1.6521977789046702334 -0.55634314152099284545 -1.2372192136342752278 1.8621575010077509038 -1.2447335753312289697 1.515250314585386171 1.687537619635421926 -1.2959379150222953836 -1.3580943150234066064 1.1139195291905537033 0.50542618843485698221 1.2846031060778366761 1.6848926041849094926 -1.1184055031794233326 -1.2999964223727553669 -1.5056865396939183022 -1.5824252876999846951 0.53218449025617275971 -1.4076518719141415392;-0.38215919717993274141 0.2963765861587611683 -0.71658442610251504856 -0.52500476582492106026 0.59957830278553414516 0.35894747978064284188 0.71734225012651497977 0.51323166796100760934 -0.49270156579865947988 0.16464756602162880506 0.20868784898351233625 -0.40315180388930471622 0.63197362956350111585 0.24154001167236055503 -0.45480710565896687037 -0.5621634941225535087 -0.20200334568177966132 -0.30164293010116416394 0.53711651629874057612 -0.46340562710433946814 0.20335403621726025336 0.4070512494372801604 -0.34497908617096945116 0.26382262005472939537 0.62081652830151079492;-0.83959343691355547978 1.0990927755738766347 -0.38153603139172598269 1.4945001448740424799 -1.4391183167149614874 0.93275080014568956255 0.91258442018656604766 0.83411883026553146347 -1.7907499579938597201 -0.99060592290149918071 1.2344982728848992171 1.0483401604729762902 -1.7164747297733204956 1.0908514512029698906 -1.3821693705331303814 -1.2707850374448372843 1.2496258389223879881 1.102773916580168212 -0.64651225697984981977 1.0972764765057210212 1.0049700877555487466 1.206985129038789184 1.4976780430629421659 -1.9510455510369881793 -0.68645729504762054152;0.017408667233538989427 0.19893286836317536359 -0.26445289806753297102 0.12273943532184827809 0.049513478210635376853 0.17727188761399814698 -0.26797987455277533231 -0.58821026509071661081 -0.050322324474961689644 -0.49314806901872448863 0.13837410313129247519 -0.56734282053647977495 -0.52321466892641621538 -0.49575774645927717099 -0.11191499875600006975 0.064962979602762038756 0.40132122647989948439 -0.16570516020984499272 -0.5401590276297012494 -0.16713602462817794825 -0.58385017369403624521 0.078570834129583239092 -0.11480568244660960264 -0.10416023541710497935 -0.35752097907201896287;0.78855348178831452532 -0.91910023040124888549 0.37123820389144707166 1.5373881221346781256 0.49634600497937103603 -0.86544578888018430796 -0.81056991019435986612 -0.66240993950566096071 -0.80589487896942091361 -0.031360560578068741311 0.20489319275468137471 0.9974644093551550128 0.21756115300733291917 -0.41802667930821496567 0.84506646737943025283 -0.91649697889482240054 0.098711967663247010552 -0.82875920707269168375 -1.1713631489031426369 -0.19590749994377085197 -0.91847426674071885877 0.71050388788694607278 0.79965122935661625547 0.77431116200185079457 -0.3662553931852465805;0.51483848833938283818 -0.21312476778930133925 -0.23762885341359482605 -0.60807099756351590258 -0.28403247733571251876 0.05795138285595458072 0.061553656605455239759 -0.3130160831654272835 0.13367771624389190865 -0.13579528698917242568 -0.40048372284539346388 0.10068447307200585616 -0.18765358162761777705 -0.34716432608437663987 -0.081614942676161150725 -0.58157581849437489652 -0.37945713106396794512 -0.0036832361112960647007 -0.24121162378233831913 -0.63770091808446593973 -0.29788223474538344515 0.51472726746766317429 -0.12209207496842430785 -0.52106761377092658538 -0.10793910187686457658;-0.048056125886074496645 1.5610212965444787425 -0.87783593971343620854 -1.1934063219919870402 -1.2992331501695111307 -1.2365668280352624109 -1.2676163711486494456 -0.64172248423191902145 -1.3069171671991928196 1.2275092201466606401 1.1355094535739704842 1.2470404027452230977 -1.360611012088601024 1.2803652080358189913 0.65780168994390963988 -1.5873946784077688221 1.0458513556346158424 1.3181053437890914992 1.9624767065212864736 0.61904530544330793607 -1.6356543156507457049 1.2757265105040402897 0.888625691988246591 -0.93079778508462418518 1.2617301489939578563;-0.075994570486684245858 0.23351466390160488529 0.30853232544513126134 -0.16393735030362338589 0.10423863326956064879 -0.098789780043046282465 -0.041694166683085301384 -0.38320594214325565119 0.51438871453858803218 0.59689071850600383673 0.13798462055135246596 0.11982460383110624114 -0.15865303372589681374 0.39732876071093126136 0.243817247544188348 0.06827102167337111005 0.099424121566012241269 0.64514850097883580382 0.296791201831627105 -0.147346019210840673 -0.25091202119836875095 0.63948987422895919863 0.47092909924452791559 0.61299830688947132273 -0.19227307934708373627;0.014831963543328984326 0.75649192744029380986 -0.98089505237701046791 0.045996890375790792926 0.52409845398656806914 -0.92531887224586861773 -0.75844172343968985217 -1.1768730357952323917 0.0080309126403761924712 -1.1503908722333480164 -0.097188263446223374653 -0.64191718200713121512 0.088503360792589580441 0.29145325370947577914 0.93489371461580728084 0.94785599003788523209 -1.0601844868848826486 0.048671308703039949106 1.0688017990403768653 -0.015000728123662262353 -1.0309022373327505484 1.3994007516803279589 0.84935558396248778124 0.28340980450139319213 -0.11908188542384584574;-1.4490811339054996409 2.4961995673956867137 -1.2434297201614050721 -1.2371510025327556725 -0.2880376174519037602 -0.49883902755931996964 0.53866767300819218267 2.7112915676096283057 -0.36416905998781212705 -1.5369018112956414068 2.1035871090248461357 -1.4755097158561620851 -1.4195025048596217054 1.1901228904872145353 -0.02308503052011361828 -1.5026591067042718297 -1.400704488851684637 -0.68724166542347775444 -1.1399440723873772718 -1.4681381153356138913 -1.5106486459453301041 -0.37396842167829558168 2.4092720357040264823 -1.3707726695193851452 2.2233401136576307344;0.10639578018725859287 -0.20125399218374448451 -0.0719451246921213039 0.1294019090619635548 0.2509537938355781983 -0.1071874361705515144 -0.25514063813761977961 0.33939555193518167187 -0.43711511170647299185 -0.39771751936871091448 -0.41411978872838173249 0.069104726445193442874 0.37323763466478260264 0.39302263486470218057 -0.62066324763699620704 -0.32037476340791420926 -0.21165322532501401609 -0.66317505764014694769 -0.26563668938179629819 0.27095615212032914121 -0.17109504701337929777 -0.13582325937867062438 -0.50997050484276340576 -0.44747079557935914851 -0.25810514431596959239;1.0582205984314854152 0.13729808027783002577 1.0467590171468827975 0.7425686852706215868 1.19014848377160809 0.83054078038144885099 1.0334831487395137462 -1.9303839226525305595 -0.24205296004652390729 -2.6540985204621270199 0.93081293160915667961 0.74436337648218220409 0.97043590701204807125 0.82997361798456092963 1.1859816541160876913 1.2406775072615663369 -2.0383044591768575415 1.0570973282801734427 -0.073461474389927575168 -1.8310188706564587413 -2.004176378699621619 1.3273119675166782372 -0.59166735073927489985 0.92352698660605758718 0.75965030432956293094;-0.30769474949443281764 -0.68097226109927255777 0.39169754644482857042 0.60548523408282506342 0.21873122840253594878 -0.56263722141204786098 -0.095353558727842818721 0.00097013744501297496849 -0.083625741450381346764 -0.59946121988287992544 -0.03658213864675659982 -0.39884613487848941116 0.62390085990337385002 0.55304475888407245154 -0.031112790296860998868 -0.036212161212116511511 -0.25687619859288363111 -0.18365897312416890053 0.6476641583672435587 -0.48201529259540032424 0.66119244104981933496 0.03036664864577182793 -0.44641878403291657129 -0.1530582673902523283 -0.2893021440335244443;0.050825867972139136819 -0.47688685778475359278 -0.58430920277350772984 -0.31086695117342538763 0.17049327253718918329 -0.019177823471876770389 -0.12668333014415020243 0.032282106022300846582 -0.4823240721831780764 0.41840418880154822689 0.29499629529702636743 -0.40340151543490204711 -0.58306729409778057516 0.3137310092929872507 -0.54423383851830409164 0.23907722790683061387 -0.27613003935123731081 -0.44167365707847405787 -0.13314225701027554427 -0.022425343322750587033 -0.36366596398197242879 -0.26971876708356296026 -0.078801658845490479832 0.1757154308682671584 0.25244189518052412291;-1.4497414717902317172 -1.3775798178574072406 -1.2350156630180919581 -1.1763653003240954753 -1.6284015566781551154 -1.204965882431081825 -1.2555607323348136894 -1.1132644757632927934 2.1666485559896511148 1.9391378287716862783 -1.1715760721200660921 0.41456502376495324436 -1.3587502326330629376 0.65643496861524563979 1.1432371254528175264 -1.4195102304172031449 -1.5505920290333068401 -0.9122910202423610837 -0.98792685598606921893 1.8149885932800302601 1.5628679929998470222 1.3113811650433317979 -1.2086231490907863861 2.084031536973364851 0.71195750336618468523];

% Layer 2
b2 = 2.9855940986893547695;
LW2_1 = [-3.1849248575715782827 1.9960394388014597311 -5.1237587049443718001 -3.7703188505535276676 2.0451829315042537871 -3.816841868296021012 3.496920236587854447 -5.369689837455434045 3.2372566381261385082 6.0858466773049020304 3.2429004591850865147 -5.7536510537604748095 -3.503588369157879967 -3.735696947958051517 -2.5729817987360639187 -4.9541018123004896268 1.2790838025278992163 4.6506121858293605342 2.6284668971577449526 -2.4435652553718525404 3.5742963812843124849 4.5452087944647709961 -3.2713213804743102031 -2.1917965450155474372 -7.095366037229892342 3.1250258053022599292 5.959782617290525053 0.11634524145405256146 2.883452592589515362 -7.0003710896087385507];

% ===== SIMULATION ========

% Dimensions
Q = size(x1,1); % samples

% Input 1
x1 = x1';
xp1 = mapminmax_apply(x1,x1_step1);

% Layer 1
a1 = tansig_apply(repmat(b1,1,Q) + IW1_1*xp1);

% Layer 2
a2 = logsig_apply(repmat(b2,1,Q) + LW2_1*a1);

% Output 1
y1 = a2;
y1 = y1';
end

% ===== MODULE FUNCTIONS ========

% Map Minimum and Maximum Input Processing Function
function y = mapminmax_apply(x,settings)
y = bsxfun(@minus,x,settings.xoffset);
y = bsxfun(@times,y,settings.gain);
y = bsxfun(@plus,y,settings.ymin);
end

% Sigmoid Positive Transfer Function
function a = logsig_apply(n,~)
a = 1 ./ (1 + exp(-n));
end

% Sigmoid Symmetric Transfer Function
function a = tansig_apply(n,~)
a = 2 ./ (1 + exp(-2*n)) - 1;
end
