function [y1] = myNeuralNetworkFunction(x1)
%MYNEURALNETWORKFUNCTION neural network simulation function.
%
% Auto-generated by MATLAB, 12-Oct-2020 18:54:30.
%
% [y1] = myNeuralNetworkFunction(x1) takes these arguments:
%   x = Qx25 matrix, input #1
% and returns:
%   y = Qx1 matrix, output #1
% where Q is the number of samples.

%#ok<*RPMT0>

% ===== NEURAL NETWORK CONSTANTS =====

% Input 1
x1_step1.xoffset = [0.5;0.5;0.5;0.5;0.5;0.5;0.5;0.5;0.5;0.5;0.5;0.5;0.5;0.5;0.5;0.5;0.5;0.5;0.5;0.5;0.5;0.5;0.5;0.5;0.5];
x1_step1.gain = [1.00598731177205;1.00598731177205;1.00598731177205;1.00598731177205;1.00598731177205;1.00598731177205;1.00598731177205;1.00598731177205;1.00598731177205;1.00598731177205;1.00598731177205;1.00598731177205;1.00598731177205;1.00598731177205;1.00598731177205;1.00598731177205;1.00598731177205;1.00598731177205;1.00598731177205;1.00598731177205;1.00598731177205;1.00598731177205;1.00598731177205;1.00598731177205;1.00598731177205];
x1_step1.ymin = -1;

% Layer 1
b1 = [-1.7033882984346049305;0.0017460019836017656378;0.62454055867548019521;5.0204655025096229792;1.3541048974384597425;1.1968625728611927972;1.1794315104653112503;1.1624360486360867384;0.90703033543731326205;0.19806502696080882653;5.74384371382981751;0.59894029720108310499;-0.30909384512842558168;-0.39668189696794192711;0.70853817009696373752;4.3282167502405570758;-0.46289394745498380068;0.56012945461307395156;-4.6751104836980470481;-0.74523096898840368585;-4.41439411267651316;4.2368542029679190364;1.764861957583311991;1.2620422054279811785;-0.71664366895357778375;1.3259073168292394573;0.28384745352086027115;0.1352909147305376425;0.43651257878135740764;-1.8830356539820727324];
IW1_1 = [0.46709736525130585161 0.25672020292712782741 -0.4191139959549181615 0.22227294992572180221 -0.36231010088795867485 -0.28142635718967345948 -0.14780471753852508776 0.085031350045891712641 -0.060009890744973815035 0.37331028522137077452 0.045675873776264190596 0.010625657838353078088 0.52191572649506245973 0.10499480803862422384 0.30757048230676914402 -0.15947223062474158439 0.23873854300347979729 -0.10312829391607447604 -0.41387095874773871529 -0.30297646539750960892 0.58383908432595765792 0.4124480437158314361 0.44435207970392121002 -0.44293226798736262673 0.14500026503296456482;1.3373654781462909202 -1.123942133207270988 -1.0026804249736611663 1.2583261759508832522 1.0268574893714597085 -0.86530890175769148431 -0.067007847059078362584 -0.1240184823605847142 -1.1687278136606187307 -1.0987816140257420372 1.3321751407834387937 -0.43653156808746068629 0.57198280569834103471 0.49134796947409176138 0.43424025785637954122 0.91373698750841680916 0.68963666064780770881 -0.64382809041132105232 -0.22388656770065978874 0.062841811895387886255 0.72612024082671688952 0.90988799098911421481 -1.2815753679893604478 0.41399813431775961403 -0.81272635491818123743;-0.83085821878037147137 0.46707744975632148332 -0.29252515227998709957 -0.26377705012816277108 0.75833406198063579851 -0.91489962805300439896 -0.46156302830258549852 0.0096055114431659888857 -0.49393331792867400942 -0.194814922202425439 -0.18128982318352118708 -0.19394920061999984529 0.43893063096609447049 -0.52237160229820300827 -0.077000124863563654265 0.31227309573332462378 0.11160031399843972633 -0.81086836640678150445 0.0046409568760923530784 0.52818712135278655939 0.42320966461144016169 0.66046373617570641734 0.73103934780041546215 0.52717546740162224417 0.54308754675767356712;0.1641882268502434794 0.87660079681777181015 -2.1819647514728219839 -2.4796563262585138432 1.0591412970287847894 1.2579197712582861346 0.81878316334759049244 0.96528807412706885138 0.92426914603719079189 -0.14514300274398478363 -1.8157736039169720677 -0.0055039058848252980088 0.56321951842741480032 0.44471247585499629196 1.049296315433106086 0.63865586362095649875 0.94273935722601054366 1.3386999791294458273 0.75162325485079883869 0.84910194683544748528 0.65088566908607947692 0.73373041731330679305 -1.5458856185401803618 0.6061874127475225249 1.161081583338363199;-0.51919793750094911378 -0.091530748401599623665 -0.45011659555727495663 -0.18065113168737617633 0.32324412392268692118 0.33909973630715928294 -0.57742789570152963652 0.11569553057742833213 0.10226171394552822924 -0.59513706733051374709 -0.13069995191778338572 -0.11999698920313735251 0.0085336577504692995993 0.26796405294035757771 -0.26787919693280165534 -0.47569898371089974765 -0.59040303870444788004 -0.53344096943493057861 0.20943611444251478138 -0.17706717914505312739 0.1757136528078456772 -0.1745965189353422542 0.17456822671601182617 -0.32869012533406938292 -0.28752238173092964368;-0.49468109525933467996 -0.54050525180588537832 -0.56550374901377287173 0.0084907739336754356474 0.27993902519085406277 0.4170711714212462784 -0.18071803662885191355 0.065196961827555174884 -0.47827770268354347083 0.061542748431015106836 -0.34154818763103161894 0.10006419100213140294 -0.44022610754305152581 -0.24013011809751685921 -0.20684414004666334952 0.23685030269878457054 -0.60868209454540223025 -0.45324372867210532823 -0.18241406831553896861 -0.0015021878307204656038 0.18254263215991881064 -0.21302754450271482733 -0.23299217831547763824 -0.35340079118012723836 -0.5380949902263303386;-0.51793641383799648992 0.058313933212543120344 -0.030145655104879823943 -0.47150703816038203042 -0.087728374286066196364 -0.13305681297515928319 -0.00838086081127704767 0.30879567841398147809 -0.2442634586977990574 -0.33814561335553472432 -0.41123312160576958041 -0.56562223939679812101 -0.48838079881836760077 0.1345466799409375247 -0.38108180034388805524 -0.49980044636542253489 -0.20836639847958901561 -0.49841502073705684639 -0.51499111511312156697 -0.33362159258297485742 0.19876698459465050317 0.2424640891819456745 0.23800393492501950576 0.22812829612801216461 0.20915276106107139054;0.77894624779981969098 -0.46213904557243068449 0.61453328637814963464 -0.37624253487851411215 0.91118290792026368496 0.60270574882254523974 -0.32580500109388016439 0.32648760965661394184 0.35295209975081787146 0.76896749433275224384 -1.745902209648138026 0.82963838417697266525 0.8510372938749354299 -1.0802938556818024729 0.047088195894004397646 -1.2497510246691392322 0.37723283587251821292 1.0307293712392979756 0.80399638950026774964 -1.7856177840531906043 -1.5018010377192168026 0.87259087852147387832 1.0856298488314024553 0.47371982990956534865 0.7352752121275757391;0.080300403554256896688 0.72572637686467145191 -1.390700783222294179 -0.9579730529139571793 0.50915546796808697216 0.11322355586893691204 0.34325502994502987697 0.098053357851077910246 0.18239495728062890545 0.72901595953958853169 1.2527572344461961329 -0.84078457291952324315 -1.0013667472126766 1.1977043247967660289 -0.93693611740114912667 0.15252279373347396585 1.2220353370902847789 0.7770127672311388789 -1.0221687069110898527 -1.2033958699158748828 0.7716350399151988837 1.1716243243392632234 1.0399112903030400812 -0.27590130949930857795 -0.11334592133319673635;0.76905480320035357611 -0.19900499271790059175 -0.4693940028249630747 -0.51943769001590689438 0.83395132354145817821 -0.17454821655870281227 -0.12682217114547647552 -0.36603257804011890553 -0.13346080523941267204 0.36919847380660630876 -0.56773774225540463156 -0.28450822687535953781 -0.25870707988623009577 1.0246744626567763081 0.33890589773126073014 0.49205691952940650014 -0.38471124334992445881 -0.77311459193319853611 0.7594894556987081824 -0.33754235195285914317 -0.41919358437782899829 0.81974459351794626283 0.8842636880010774636 -0.34284231796613362508 0.20321344951908804077;-3.1421559119429032236 1.8177352758109142083 2.0764215379354182822 1.6486052171910481334 -1.7963461208909305977 2.0052103495157744817 -2.9998631579004779724 0.57657082416080307485 1.5221298799705882399 2.0696642775401548064 2.1552943537029820575 2.2682635464050964202 -0.66516870219055046487 -1.8559040295183106828 1.455297755325716702 2.0516775842513945705 2.2521788862961336086 -1.4003094348358688936 0.11220167292373313395 -1.8602050487358510189 1.8898956696944571032 2.0589866187882059911 2.3879163979697399789 -1.7746548383840332619 -3.4526756884325835451;-0.61616683124328974763 0.022600305192079495759 -0.48411554731601952328 -0.35378097047392947916 -0.59887383345767153386 0.25539992731723798469 -0.60127232217605142139 -0.084704253068890456024 -0.22327564447391917701 0.28794727180596796368 -0.44690311178899516653 0.29244892692974017168 -0.31234385727382196762 0.20495287353902080785 0.0067920587683599738596 -0.42486914845296558374 -0.33353243368749818654 -0.41249206941834865026 -0.3419429829270034249 -0.12119649680297384098 -0.23205514380814942776 -0.39484639834676615866 -0.19142180036002665044 -0.51414603701532546332 0.31627990280369688847;0.54120085568012876731 0.53069774287671844792 -0.047761139034094679534 -0.19147047736478073343 0.25487680166850262831 0.18405088394517485351 0.50741619299301765622 0.25252296670960339142 0.29769658732009829372 0.31272066928386338391 0.47230619198790063651 -0.48123467413480375265 0.37641349824057446227 0.055191677035434302812 0.015803292102043432765 0.37137518264229490983 0.25646189581991896134 0.12727284890106119186 0.11767349973406160402 0.35074610298668223995 0.016410930888912676762 0.29444692297577595985 0.21848618831882637981 0.55133683756020690492 -0.36052360586159709621;0.20929136920786275966 0.39252139806131719491 0.175203362070078833 0.5987226189010032007 0.23261360101488545715 0.2965427269258609777 0.53603904385994349813 -0.021598749098371446825 0.046320211593217711088 -0.12061060834460154978 0.46412415702318926547 0.46048150221750744349 0.32572469028791878332 0.65671861264393238677 0.44078139717349523741 0.58966103240614575753 0.16912448820651146408 0.13691387776139266053 0.02326656127030832244 -0.31136812791924090016 0.34830590108927123039 -0.057339546175250791227 0.58697275679049365493 -0.28499206069597654567 -0.38180271524215975143;0.61060400585849816668 -0.31720604931216883626 0.47948078581496700323 0.52469230739410210873 -0.131504607179894345 0.45149608717388084456 -0.14411574262639456623 -0.2216357390013322104 -0.80736323818017574627 0.36675647643763409356 0.28332465096166109531 -0.79047165610222647203 0.69912670016375644266 -0.166585751269287069 0.38027303433837517099 0.66529483670066746903 -0.76961917585897454686 0.20653136454821699464 0.4109264502333781488 0.59266566514754204231 0.48732815140197349724 0.18749491189507000444 0.074061329771870784699 -0.51890320048085869509 0.2743128359982749398;0.43733837892426480343 1.8230204935817067025 1.5558405282482370424 1.8522990228164948334 1.56073572140585215 -2.4715017744853575721 1.6991463832076643126 1.5797144423362787791 -2.8328641341798017628 -2.8306395096898695485 1.6194494969777026849 -0.32708068418907587649 -3.3602625355273461061 1.7791757156267700157 1.0857073358061433144 1.6083728082278940796 -2.3689921465037007131 0.83210729131785565738 2.0469124048604072641 1.0458314335038050302 1.5957976842875147838 -1.1041169651157825005 -0.44136392410013003396 1.1579257801599400768 0.061082344229544775771;-0.026530552764899760498 0.57289277800550730824 0.49265796249624882464 0.44261687877641170408 0.22320943863361708548 0.61045217459362610679 0.5232216017692228327 0.088279205803744653647 0.09284826286026069686 0.39019322317767601849 -0.22101248731739908671 -0.17774634924027363225 0.0327189990846468437 -0.25076182340578517804 0.037884511411781458812 0.63776808320735101088 0.32559569378712166499 0.44199645924313274437 0.50891415340997991912 -0.15262005403546174964 0.24983678463751513021 0.29501571272575349836 0.057876703808978982591 0.49997553937054817208 -0.18995867729100768262;-0.06847598562170381653 -0.23265078224527599438 -0.60243980304543232052 -0.40269141262175650597 -0.6684578225391593076 -0.59146701277996016621 -0.54957741800543757904 -0.46303384189991025899 0.33859648137716363836 -0.08258206789308958351 -0.054796940175685399099 -0.35020102214032156063 -0.24556718643210381781 -0.29692440845284506779 0.11197456757539972494 -0.17407253435623612492 -0.55732205021197578354 0.29793234770498577824 -0.23504275146955880271 0.29455150076859143438 -0.2379528955215853836 0.064687569166264752285 -0.61543042605257514133 -0.19350633000333766764 -0.021156223986456241387;-1.925463116188515178 1.6328653037600491249 0.21746549022200573065 -0.044938119126665621028 -0.54332184709123687583 -1.6905837492111166487 -1.134353241970311954 -1.1808096114390551623 -1.539367406264319893 -1.5654377272546267097 0.051770134019479843723 -1.504789504858396576 1.7803620531773343139 -1.5040520324796109453 2.3729525345716595552 1.9493214059899819368 -0.53199190499438275825 -1.9415093065134543249 0.2361560167262887755 -1.2418547851828518613 2.5376742555402254098 2.0660041104659132571 -1.1151038996502637968 -1.7106131363152243807 -1.5529785331994157005;-0.37871281430667363965 0.64832752396474435663 0.55057293569647525189 0.39385931016895520118 0.18422428241480778843 0.46606405644311693637 -0.25629363052242670751 0.36271180189359059076 0.65783689076698459441 0.38268272338558917411 0.0062123044664128016998 -0.18016273170552798977 0.16324043340433980198 -0.14126921194787980807 0.34834210846671870287 0.20350404918567069346 -0.16947463756062830509 0.32748657589350410602 0.54409425129627964068 0.25891127796407487072 -0.25929806330535570824 0.22555182270238283149 -0.034404936540974186132 0.17032271680174757011 0.46127748198904588994;-1.89461451227421529 -1.0997555390879376613 0.90641608164980591589 1.0662431575701527553 -1.6420861669886221978 0.50871051992276017373 1.2322912220812405337 2.2558212970062547775 -1.1580670045041747684 -1.5569427077885467092 1.621802222881123523 -1.0750724893275547256 -1.6516783181134813141 -1.2759038476960358199 1.7636210873602169436 0.47133490957532686583 2.4944493050711757931 1.5693160328006654503 -1.6685524680228556171 -1.5551131626492940008 -1.3324966574333876324 -1.1403163461986083327 -1.5990044345415836968 -1.3412331467564673204 -1.316777832487536104;1.4633901321121065564 -0.5246810956777484547 1.4830812055272295513 1.6173260571859540136 0.88695951120181593108 -0.19781165508253659158 1.2730404004424717979 1.2126977307543165274 -0.20591451069991401068 -0.28261807610412115199 1.0035525853744413638 -0.008208850747662803371 1.5105348544822980728 0.81587443881420385061 1.5516619599186050049 -1.0165702967223930742 0.78689739696396454605 -1.942015602897879889 0.46396709451804885038 -2.6909888466148279562 -0.17283484141330304751 0.93978509809686083809 -0.35629242383771381197 -1.7013929933748730416 1.3235680331808556964;-0.88020619167767399915 -1.6147263684287358476 1.6488583041137974128 1.3154310974668628198 -1.028097184272488418 -0.98065059910319374303 -0.54523527829729279137 -0.58239874026787175065 1.7972153214121786569 -1.4278136722063090591 -0.57749709414851158051 0.88500562659989456815 1.7415442155762945742 0.27958890235290279058 1.7920032563768732992 -1.8676276927964114982 -0.34866747220274701968 2.108991714516172955 -1.7445353006570365473 2.2239391755460471423 1.4100141591868429192 -0.074551819378990857867 -1.2969761546198721458 1.8960242824192583555 0.068394469615907282911;0.058987156287053310599 -0.054296277795945299682 -0.075555498223601538776 -0.53064018066801155182 0.075744981111413825503 0.051594191780994183572 0.016602535867248129076 -0.1249465555323583249 -0.42067648199452212232 -0.643874945145849642 -0.40681866418557727227 -0.35411887559796517699 -0.16170756129331059769 -0.43817936445164468173 -0.53167338984515633005 0.24470591399034313795 -0.30046598256496714896 -0.57992695400133698058 0.30927085968068729338 0.063810985030407899044 -0.37573073213546331894 -0.3872643323840533891 -0.26590031340489883593 0.32831466438938922137 0.14059397766206008229;0.47748287874978745382 0.64745625388795879918 -0.39533277469289618278 -0.042133760855623883512 1.3983303481964723947 1.4013653756768706948 -1.478080228773752447 -1.0053115654529671819 0.16414504183692738004 -0.9892171795254274258 -0.46429730080975123441 -0.4109368283665669197 -1.0731926632518853371 0.97867051301244245565 -0.7103698122380136537 1.2292412381542112687 -0.26373813271452034579 -1.5282153826843256628 -1.1930321316092766804 -0.87921174045562267008 0.67965254427491306188 0.85073494193802279284 1.3125410184654047185 -0.2718581875069276399 -0.8484585051211415152;0.26339952044803888187 0.10391569740496310603 -0.083440756787515044102 -0.62440940186276594481 -0.56307919488687308007 0.0012540291090706139066 0.060597058876967618835 -0.29474745662987483774 -0.089753202639992937795 0.14914550090463510323 0.24518088178608957173 0.16209405506483251513 -0.56259067184018041186 -0.019272124884439020137 0.092375912371745028118 -0.56755532836490640847 -0.15443679836677573491 -0.21089025190307730817 -0.61597410632921145712 0.1859675958672368512 -0.49751863358851455832 -0.61271317753748200108 0.031003427768409159287 -0.07951246756005400651 -0.38455595239608958424;-0.85175806702218093136 0.89793837214560445759 -0.056511268423274627071 -0.64997611818127920547 -1.5336321306016813537 1.2108076446552127337 1.4007626248623390453 0.88214503143444000788 -0.64871335489392822904 0.31656973581917302596 0.84892197133541980048 -0.65781564456558627718 1.5282568212587055445 -0.63947688760994236823 -1.6375037652736506022 1.2884437662176164707 1.4874265123621914775 -0.26894275959388991293 0.49680713630171435824 -0.90696044846453405253 -0.60807899186778691103 -0.54413506755524965186 -0.32197188250043828894 -0.3572946099954850685 0.93325724622611549997;0.52956790928787633721 0.53203704884868741054 0.27685882041592635439 0.88675950954597670961 0.12759056684496367096 0.9171995718880774362 -0.80891627384037767534 -0.039528299966507508822 1.0509871840038815805 0.56995035673541671883 -0.44674885384092227758 -1.1110214460796414837 -1.1744257426480415596 -0.45022384072721022275 0.3792566473971999419 -1.4891598863650616913 -0.69014148854193158034 0.19866235735068898949 -0.60200187693017725987 -1.1687760789132011219 0.75816967312195537865 0.62201733025086980433 1.204160952909056892 -0.061014583017004228593 -1.1270876164678138576;-0.14024368334703060657 -0.14335322167411654326 0.95611060823267024489 0.091281643067191137186 -1.0144082500436570893 0.19707438600710586174 -1.0730026848270781681 -0.53197008202281914624 0.09017839515009085094 0.36264869513117792277 -0.66255182532467971068 0.97169371541924365321 -0.70277603629951823638 0.92927468656840717109 -0.57593645962821693463 -0.78936827476318549568 0.55066863787341346903 0.68362489817619043198 -0.67742500716557407792 0.75624914230715556407 -0.19752429188783945935 -1.2400874506300307853 0.089335009889568661734 0.58605971840603565681 1.0560506721893356818;0.14163940063225116672 -0.39899739052895838443 0.40194525313654855259 0.34195188113706875832 0.62922892914905215189 -0.37269066451381671623 0.40166699592394677909 0.017538729881643125991 0.038121515584414102096 0.34215078136708743095 0.25385703472483833743 -0.020245578570013276348 -0.0057692023056562175345 0.22047820342835558471 0.18984112655344151377 -0.20282173258577612662 0.60709352660878623809 -0.037300245353234687262 -0.17165303853169372461 0.33942340584336272435 -0.14893310966078707192 0.61246562918311120427 0.18125779732950234036 -0.22295419395425450371 0.29245002644798923086];

% Layer 2
b2 = 2.8396896350649014629;
LW2_1 = [-0.98626710149372220915 2.3455407005008810373 -0.34006950429355115029 6.7857337497111531732 2.3954356509718608415 3.5314947854826583828 2.4008542196448310335 3.303528189669730164 2.8149995850183358037 1.1214245084939076236 11.141358924346153714 2.9567819350034350023 -2.0905894754871834351 -2.8821714178557820141 0.66609765046305757785 8.244403557989214093 -2.6198160098625455916 3.2497120450237786393 -7.9053358371697628471 -2.6625180935145089656 -7.4797612992990547554 6.2788883247842859348 5.6375772077118533332 3.2725954885631862723 -3.0685350520115415307 2.8435278166423159085 3.0241019185170441297 -1.9853039130214422681 -1.4364570321662906149 -3.38121191118842912];

% ===== SIMULATION ========

% Dimensions
Q = size(x1,1); % samples

% Input 1
x1 = x1';
xp1 = mapminmax_apply(x1,x1_step1);

% Layer 1
a1 = tansig_apply(repmat(b1,1,Q) + IW1_1*xp1);

% Layer 2
a2 = logsig_apply(repmat(b2,1,Q) + LW2_1*a1);

% Output 1
y1 = a2;
y1 = y1';
end

% ===== MODULE FUNCTIONS ========

% Map Minimum and Maximum Input Processing Function
function y = mapminmax_apply(x,settings)
y = bsxfun(@minus,x,settings.xoffset);
y = bsxfun(@times,y,settings.gain);
y = bsxfun(@plus,y,settings.ymin);
end

% Sigmoid Positive Transfer Function
function a = logsig_apply(n,~)
a = 1 ./ (1 + exp(-n));
end

% Sigmoid Symmetric Transfer Function
function a = tansig_apply(n,~)
a = 2 ./ (1 + exp(-2*n)) - 1;
end
