function [y1] = myNeuralNetworkFunction(x1)
%MYNEURALNETWORKFUNCTION neural network simulation function.
%
% Auto-generated by MATLAB, 12-Oct-2020 23:14:06.
%
% [y1] = myNeuralNetworkFunction(x1) takes these arguments:
%   x = Qx25 matrix, input #1
% and returns:
%   y = Qx1 matrix, output #1
% where Q is the number of samples.

%#ok<*RPMT0>

% ===== NEURAL NETWORK CONSTANTS =====

% Input 1
x1_step1.xoffset = [0;0;0;0;0;0;0;0;0;0;0;0;0;0;0;0;0;0;0;0;0;0;0;0;0];
x1_step1.gain = [2.18800441600823;2.18800441600823;2.18800441600823;2.18800441600823;2.18800441600823;2.18800441600823;2.18800441600823;2.18800441600823;2.18800441600823;2.18800441600823;2.18800441600823;2.18800441600823;2.18800441600823;2.18800441600823;2.18800441600823;2.18800441600823;2.18800441600823;2.18800441600823;2.18800441600823;2.18800441600823;2.18800441600823;2.18800441600823;2.18800441600823;2.18800441600823;2.18800441600823];
x1_step1.ymin = -1;

% Layer 1
b1 = [-1.0604262097328571723;0.99530350064089345707;-1.0978409392817061185;-1.0245877736925805834;-2.6942362728007522854;3.3385556821137511996;0.76412472998242653155;-0.52644160981090348805;0.0047092076044094322018;-0.96549672870359870558;-2.7249385051249022105;2.2607179982190608314;-0.95872937706401095692;-0.60836733085755922978;1.544932208607764812;-0.71628646049663491358;0.17247950392552360843;1.0784349946341760251;0.20507945591485571279;-0.27970332162753197558;-0.88874843835349570664;-0.2361562748524366484;-0.43073391444642328274;0.30254693839932222943;1.2688795394612200074;0.11733919356523833666;0.77672314660191876801;-0.71144982657745770016;-0.74981641555520806008;0.19626449617337587972;-0.12688340813684159669;-3.1884116004606246619;1.0776380181542624115;0.80415710203876655804;0.84191959171201158352;1.6204335613897604684;-1.679988823841483736;-3.7130804810623767587;2.2930514662297505346;1.6924546807435072449];
IW1_1 = [0.52035751885822567608 0.57778898620768859296 0.34445752419069092243 -0.37240335977187150052 0.44594747828465552963 -0.93518020647341637552 -0.63160873411402007616 -0.55964320356321117789 -0.80337078692168073513 0.23900502859948366541 -0.41203153652386659278 0.34080412115175007237 0.72277718187075423728 -0.061824500735676968244 0.18037346625416753043 0.91041158445718373127 -0.59680789786007670816 -0.2169991884220782985 0.66596072032497055648 -0.70092819656021421171 0.82237779168065761048 0.31826761073378173617 -0.33514021328505932962 -0.13475651297061636003 -0.69745420783933265163;-0.54568260584830585724 0.22154627767373549774 0.10208882183519236986 0.79867295339014765521 -0.62370796994847732542 0.23790515001907727721 -0.75476687237732842384 -0.14170842567997965489 0.14472648264962670317 1.0541051812481019301 0.26250773327546783609 0.54690176733638318218 -0.32829636890996910514 0.21568215833783740965 -0.47906423828122751685 -0.81985486967140119852 0.66010028991119595876 -0.61936583064530359444 -0.62154114535622206894 0.15666220378505363309 -0.66435098045549734191 0.069774426967503397345 0.5165770275010688195 0.54208377108112837384 0.35234279926494982416;0.1485418493541086904 0.029773060313983381459 0.53229066162137439466 -0.30373982110381941846 -0.72278048009656470363 0.28152507552511629729 -0.71120936875407259059 -0.27126004404588854868 0.30085069879945619542 -0.46046156469582100179 0.085117617449896099124 0.16896157528467059539 0.14832507909088682441 -0.55103275113992267187 -0.452662495620214822 0.23301446181643817313 -0.14444736543170760834 0.5743529072688239312 0.18314648557820423225 0.65195033922919232161 0.67839323508618887271 -0.72733438239807368664 0.41626537623907872154 0.21543807341174256442 -0.71691604171622014263;-0.011578965357884636947 -0.67779842299193437949 -0.35047965058826280327 -0.52638462987833800621 -0.7284071882256618613 -0.03094160206758959919 -0.084581948708656554126 -0.52142608178290761334 -0.26271447130295610961 -0.098467350752644872136 -0.45953226337697822279 -0.68079260762878002211 -0.27251383710591969844 0.19700989309416028217 -0.02746859068777316934 0.19669968992370293059 -0.10317048162864138339 0.16964803070699194243 -0.55710362415756697896 -0.67945523222139547759 -0.3468147254554912462 0.27655624139975859554 -0.57669020213591182245 -0.25987422031303508696 -0.42120449939257853522;-0.028828266953914574028 -1.0263420493459276539 -0.67747330789146487096 -0.39268367521917979523 0.48484310761772952958 -0.03752355203826852198 0.2785407114070515 0.75303430036532870151 0.35306114716668562936 -0.4390799124545152754 -0.78760484912950590175 -0.88181240797970716905 1.0416036086294484519 -1.0881241755434081231 0.048173434464463392446 -0.92031005409692545616 -1.0159319752703914741 0.84865468296976920293 0.9866507715508596732 -0.59724819155187258701 -0.64622995734605592766 1.2504780284088559128 -0.84992061213188363489 -0.66433496060480135004 0.64981864737304384505;-0.68458932749731205014 -1.2874085784971975865 0.27604988157624826828 1.0042071932019573932 0.87270409499954959553 0.89465229230108134217 -0.18143181554429613223 -0.089733663725202222894 0.32066836986386171304 -0.98031457449207737298 0.37860463853020809299 -1.5671222549838610405 0.45224090393324434256 -1.7264995396806523953 0.78814618101151601159 0.77343709876527289016 1.1068898570390404146 0.69157332393385206881 0.30805612296397189009 -0.60621783931951533919 1.0208484213363251403 0.28988423723199902016 0.047482305171295112467 0.91212682315054405269 0.96857683585040077467;-0.17919687038733506101 0.16155629461296652782 0.40462415509333943264 0.71675545487834757541 0.19407399130251737351 -0.2399100923391137008 -0.01379283488408657686 0.66427953719115362397 -0.20983376866635794489 0.27308847846102823897 0.54921182353732289627 0.51230185322171750695 0.22871253796959301052 0.49829494330227658283 0.47958179029510017433 0.099454228059256744032 -0.15042485971033370262 0.41317220980297997279 0.64792908509528968075 0.0013122996720313082671 -0.11354822651657386912 0.59534606571233128491 0.67874167654442763009 0.05829149042856550389 0.36475490613703198672;0.7204826201475565961 -0.340915832302802424 -0.47385547436730202087 0.67583852956559065106 0.33572907106510979647 -0.68352261944847658715 -0.40594877462395639878 -0.016639425486125042353 0.22817583475101077539 0.23891287802797950279 0.31678322760081961684 0.61075526053029194351 -0.8542027712515360971 -0.48762616725238966398 -0.68022754293845577589 -0.23008178286525662881 0.36970745018966172379 -0.19960490064383479281 0.4324220519225289161 0.58631781530097881738 0.16979780812204664509 0.38309547596681631232 -0.70436963894333104452 0.64911232727051304536 -0.44577817421085641492;0.61772795380811651444 0.23835907754858451368 -0.16988470642490766105 -1.0848284362173743478 -0.48502566736293517557 0.29099082130591258366 0.83884363563905062211 0.49216534703717440546 -0.92994547526683402072 0.98932212413234177362 0.78857034046335128252 -1.1038702402307674078 -0.61001922343724634956 0.88187495684211203439 -0.99939238402282926099 0.15096103706293992341 0.87402670906956758667 -0.18581860887025483664 0.65316746202168862734 0.047110644511142746316 -0.97286365153122289495 0.9016791928065829298 0.0012816608067569401196 0.051847062413019222304 -0.49537466523913803451;0.53647159856938231304 0.36789506742462313449 0.21289277065388356736 0.068526287394453447299 -0.11531844368802306178 0.56602213391661149178 -0.37416827130064606033 0.054010042582211550966 0.26415103238169801436 0.50168785367497659156 0.052296511955583581399 -0.13871487598072840264 -0.44250989703115661822 0.15557334370999556517 0.20957689252736672048 0.42522231141056721082 0.58101068197245220315 0.020932553302996495526 0.31559281587341314612 0.47217021640970191498 -0.11340599796200356852 0.16388285923081069573 0.02727778590518506116 -0.11567487036781103071 0.50387606673577078897;1.0673481954684527206 -0.92067653385491576845 1.1934386876322251592 1.1686657003258054122 0.8819172035518274555 -0.6293709398642479691 -0.85638563216536911504 -1.0431673888864096966 -0.74342175550177069798 1.1705943598368002689 1.5459829995251324064 -0.84074327865470888099 -0.67619731416432860005 -0.88073718526772526438 -0.63494240464920104206 -0.69803378416469530343 0.39848984552404986825 -0.72040946747490630653 -0.28919353828008542706 -0.89029473624092148043 -0.6914844510136121114 0.33811123527979758396 -0.80592171941288326398 0.9696855397804899912 -0.77665616006897564283;0.29108038909353245449 0.1167264713607804455 -0.42907364521399821156 0.76458946281704753822 -1.2674314997045099673 0.30226271917951741397 -0.89883114490511106798 -0.14881123565579526535 -0.42982582661597112939 1.0821875808533647501 0.8945129795558518504 0.93453717344166986614 1.1999745034865239024 0.32635306039884770524 -0.22002706521194459466 -0.66680750313941428153 -0.77529702276224998769 -0.75514228710385011833 0.88089334445256539663 -0.54766354710776499193 0.41508141218935040717 0.99105814662783864311 0.9967709944462734839 -1.0481747741155507114 1.1529629105472187778;0.65774192470223691309 -0.17670090026079485201 0.49133268692165849023 -0.24716069045761138168 0.016703475581630839591 0.38272578222445963192 0.65244909737775835801 0.44116291023731168952 0.60544113934676335731 0.33047582008446990676 0.3391814293736242214 0.56268809744265679829 0.22165801970753462591 -0.22591455835757937032 0.062725873398384132673 -0.17171323852020403677 -0.21394399856403076288 -0.036750380429009854577 0.20108335857693449 0.086651261713078506221 -0.23024006371667338211 -0.025849358805887338864 -0.090688894031640529536 0.45024994092081715991 0.045135975719026479036;0.41018187275143508375 -0.21226632231834366427 -0.050593788857139401771 0.33892064008756017657 0.05549925799936746007 -0.25349299738260711035 0.10502296307584176038 -0.23315967982954585724 -0.21647273964880756059 0.54759461772566642157 0.031651693876691470997 0.16679015620599008107 0.083233021922819228067 0.30226503607140242647 0.53994194377365711812 0.23995319836962178406 0.11835445882749234814 -0.43379189187621464141 0.50823328324306804582 -0.37055178421764972674 0.26024867274927632188 0.53129633646949037118 -0.051186389434651050068 0.48332932071911660632 0.49646862109336337143;-0.82152057855530857822 0.64485439930066268399 0.28127341418803747386 0.67836322326376419234 0.54211708731770791303 -0.10975776445968182804 -1.1882559452733449934 -0.069639258095569478435 0.50252642927947788198 0.10217550431066485528 -0.054440032901546496491 -1.2427061657147497886 0.46005973393376442537 0.62989130275144511462 0.59903562857553982468 -0.23834391775593438689 0.19419579905689021704 0.55999827895743015116 0.037218028849563170035 0.1723796288721414216 0.43866844819041617143 0.41043089468652715901 -0.81261957101576876017 0.44493994277082782318 -0.16774059364609952838;0.59212729891366644441 0.47014293030027209941 -0.18064497484062916333 0.043776593966864021934 0.39504957621680480973 0.067977989287973397681 0.33468857017218123229 0.43272455052959840627 0.56295807300789946215 -0.14560536830803777475 -0.033263223620460351249 -0.12865960290128916621 0.0025143138659772454324 0.2916235889201356235 -0.15203982792711193128 0.13843654883488448748 0.2502989846838958865 0.34305373680961392946 -0.22449566567991255384 0.474017670329908547 0.031420089052449223788 0.42313542463573677876 0.60181108757064116777 0.50898620267565419795 0.55008588187839135841;0.61593680441906195622 0.41084607338938561316 -0.56780593475312302054 0.79854034591455314018 0.70932448901078426484 0.40786240111684923804 0.50681228904675490465 -0.4603903788072609693 0.65636156357182606769 0.065169356032076228291 -0.85498150436594344548 0.31237465202047037804 -0.092630254687230864641 -0.34222487427171405239 -0.61263344508462902471 -0.11917731834427054693 -0.68291989934309604848 0.06176897871602254203 -0.49342341506532427786 -0.55911123349279723271 0.54914518674149037647 0.17510388724811801198 0.79820489690108875624 -0.57181680080354102547 0.15144637493155710395;-0.56202164257222231303 0.4430136972131154538 0.42306320111051581856 -0.33539507060037232478 0.28042746365239434869 0.68981604721021549942 -0.67138348206978171184 -0.74456169140257788541 0.30426452990799773834 -0.70990127466304564496 -0.97226240340202685353 0.49229050801215890054 0.42862818017894055433 0.76412344590103775666 0.69525307270152214567 0.68454121911604903783 0.12899586781318331252 0.25576083627793089192 0.4543135491287074168 -0.68052129660237270503 -0.74935332368526996749 0.07415545371764342697 -0.094057532540784569153 0.60667660842102510976 0.7710996738884717816;-0.11344088486232153934 -0.54414415533548354809 -0.40453903078259151327 0.20629571150783779232 -0.26290928265236856998 -0.0057014085156052284747 -0.43598774621736735568 -0.4827559568360859088 -0.21311565708490878834 -0.39141064093169281035 0.4455113363926737069 -0.060281490088781988779 -0.42871739136719499985 -0.33825644891399475611 -0.42881110488018386873 0.18674109720676407287 -0.31740584044168485001 -0.15380811564080515419 -0.30430236438652247255 -0.33588956563823724188 0.38866237881235665697 -0.41889176073141015655 -0.43719444696568038333 -0.002265772891754034863 -0.18110516945949978185;0.15518154624277238907 0.52063816277242525032 0.33389393508777370778 -0.21377358391593132003 0.61569989697880000978 -0.16935616883620033257 0.21786462710756360206 0.46906045450948297137 -0.22333424015995761991 -0.26682726599332523554 0.63831678561909632741 0.47400304479818172743 0.034092397770403230772 0.32675891621381708552 0.65872806904023251118 0.62077856716702795037 0.0056123563589943505081 -0.031691035690587759932 0.41406929991951840764 -0.28888700147504409177 0.27870671306460415018 0.15216473988549117369 0.24414430490860011824 0.26499822352190460784 0.058020679829370709613;-0.66157495210201411329 -0.64981100310905137718 -0.92150345839408831505 -0.44719414581490196658 -0.35807343515318812432 -0.1357085454349281628 0.48910676591628282628 -0.95763956497616031793 -0.24175608914381105374 0.21290167697029063754 0.80827698800285296965 1.0432254344255063039 0.032716628620218471402 0.88930994851320344097 0.1554427793526784729 -0.48334594695226890115 0.42451403013229294103 -0.070091310183723290472 -0.76014766130900224272 -0.96348558374646742219 0.90599838641370245007 -0.77785804363904109682 -0.11957646758945940368 0.054808296000496289913 0.95673019372691336937;0.33615500109465229484 0.35559935692307731436 -0.20289228854303054117 0.15969636334425230118 0.54973470674800695157 0.38112702213846405552 0.66849024630047526596 -0.24951772013596343336 0.02891629373941840761 -0.010835642017073513974 0.27678749472116842556 0.26192767772136926752 0.15104262623280045874 -0.22284174683792501437 0.3988388754103652234 0.67347740745571038623 -0.21983842966363928428 0.28754336874800839885 -0.088486995100994378372 0.66243203773008152435 0.61070730009727913767 0.49895140942496407632 0.15072310615837591907 0.02051620332444601888 0.38870754930896350698;0.090145054595506021733 -0.0094814207154209333844 0.52720054078662359487 0.2225668032057053769 0.051231925511832004938 0.20536780299309581599 0.22316917930724014529 -0.30602785987031472237 0.52596127686282712066 0.57310394439359380048 0.43962032467675699055 -0.46576732920102004165 -0.069748824931869027322 0.24112896617753923345 0.03010023133896806008 -0.016372095651766425256 0.17371718365444480114 0.64040272070294357309 0.49045396735204516148 -0.076269539514115525236 0.52792959517872306563 -0.17675864091692639057 0.19742914260953972616 0.58118977603154264866 0.015674905313569645338;0.096403507862575302245 -0.29094528895807086899 -0.2571455323052199704 -0.10013236680045638216 0.20908377957600424168 -0.35253352439344187719 -0.2988497550799928959 -0.25317539204661004826 -0.24200974445401293722 -0.20675983677457629439 -0.13045574887460889557 -0.53962946874746586801 -0.49198588824037947642 0.14367684866447463787 -0.55686423757240510746 -0.017038482632927863525 0.12238631146639369907 0.34938075465088597182 -0.65062708665557866805 -0.2524916437568384131 -0.28604505622890191718 -0.48514079974025647868 0.037546922343667729627 -0.039482787143852192402 -0.49912113911851496706;0.5266413064248994802 0.65049862208749587023 -0.042250201836596799898 0.0060150469609462110798 0.11464342781558599371 -0.55009895712371115195 0.40934100346854440655 0.94004168285123190785 -1.0234555586106719449 0.04148368435955068767 0.13582122465291679436 -0.88193356917387133453 -0.30916043483775046408 0.31847648630231312206 0.29190316816114708631 -0.87401501068948894702 0.8235735069118005347 0.39831672487577479691 0.32583994234546481694 -0.850984485629328824 0.50966081467603618904 0.89479800178182755666 -0.74335470386183533087 0.8403287448306888674 -0.094997053956826379983;0.21780289853979953318 0.56692348172258677508 0.23388622396569980211 0.016923517209176505011 0.67400372492469806662 -0.17435862334186144618 0.074323386481080958021 0.062560631078265274696 0.66543112183659480774 0.29156367731662552467 0.28383244166364746119 0.16249850403457183345 0.47348802238228682171 -0.19398480733658760022 0.56781147987611435557 0.51774006482334467005 0.18295188092157593784 0.18034687017926986918 0.70343234611254423783 0.096593484691441675039 0.41075954645041840019 -0.28201881932354733173 -0.030232483562696917806 0.60565169245521000008 -0.30181566800421788521;-0.033820629079396896666 -0.15005754685324126929 -0.14911061564698563364 -0.58541805986547368335 0.078275118569813520453 -0.39394436085113587742 -0.55670884765442418818 -0.22034637163724118958 0.20533130915867206512 -0.20693693711911870237 -0.21755922595265386743 0.22704632390388154728 0.12178374443900147339 -0.11429265668126722955 -0.26739670514439162208 0.18793456341171599355 -0.16271053746142816188 0.34461633691255527667 -0.57567870538539001046 -0.44485614700733894233 -0.50992982511962958725 -0.087220077634674458844 -0.0050091712321306929023 -0.54701926944583656454 -0.62378801136352601819;-0.13606690539610011292 0.51609563622773568792 -0.36909523111079395319 -0.077829113205726649372 0.36457335273287411193 0.25219139552127622927 0.058340357418317452531 0.1341099119634725223 0.57091687567824889182 -0.042803850277842600547 0.54963489828594158659 -0.066942207594614139277 0.22172304306000498175 -0.44677552504392831212 -0.035231853209062295729 0.40321439588890251038 0.084869067596402336662 0.45722606640793184152 0.45087793263663156207 0.30702848087650941311 -0.13405891327602753593 0.36916349946029924922 0.60412655609259025002 -0.079106103835356864074 -0.052345819190858580705;0.025140994206489419155 0.5988583293356120052 0.50124930327208039316 0.35733409226982898454 -0.16533944970498404281 0.26553545879140499908 0.5849283936497745584 0.031286362378853502242 -0.4811208070708682949 -0.21526599845101160313 -0.2250368552919446985 0.034919152308793499628 0.57765764751284642831 0.27167131260889487709 -0.065958092275790511372 -0.11484602803362857493 0.057974423059840414496 -0.18791229640663117961 0.46029144953918116334 0.31038474684241268431 0.36676046273069012882 -0.27870060238871957603 -0.1666415047479475886 0.016285938871450779397 0.40517123859997222768;-0.45855750180038784558 -0.62305140026546923515 -0.15552973654005811111 -1.0503851242866113491 -0.08435218171861343095 0.52685500880802538237 -0.94760505330142741354 -0.88792392829743094218 -3.3195997853759876689e-05 0.98932340999843781937 0.50810385804594726533 0.53744070750288452931 -0.13746865786455411684 0.99425976974506913297 -0.10253822762641362498 0.5101616685351412217 -1.0462260726495233865 0.80651465274313161036 -0.48674899902822660325 0.6787596757325923269 -0.073923434191841913554 1.0105598018359949197 0.67215307322274830959 0.38427531371952761141 -0.62883549781426617553;1.280009324712844565 -0.64729371835975291205 0.17363275508045544759 0.55872256035524126005 0.13260430282357313359 0.78914567867687601677 -0.63800676013510804196 -0.58764368634665775648 -0.61145628817086217222 0.53459155622383014439 0.93565621115705299715 0.041928779592742590476 0.18871261239702188939 -0.15255921650824175173 -0.90135759516927116408 -0.82487467077782472558 -0.99331093046185425788 -0.050504317594268675895 0.013168002312034157025 -0.6752163215973918664 -1.087022642121860283 0.62606699338840920976 0.80382146832517820112 -0.68679183590744496968 0.97201553231281911938;-1.0564022599785720669 -0.14864051690489044066 -0.76313163495959512872 -0.99886010856100926336 -0.73699332846755105653 -0.8951198363437520289 -0.95391988592795140534 0.17282955177079897813 -0.49317452757253477102 -0.98845094539128652844 -0.83576490763797584016 -0.78288156962644095405 1.3389958803001609233 -0.44287670935291051366 -0.42400052349745248614 1.1346198637150610722 0.20773531437714204406 0.60167049659354532309 -0.56316514281154805843 0.62156469868904273834 0.51450572784036241458 1.533129454561528382 -0.83176036462696234519 0.33299456511460240327 0.68904661634003450121;0.016434888400498656735 -0.52682089645204832618 -0.15005667575475048481 -0.4403000335472408433 -0.47677585322164084403 -0.53829813507002333139 -0.54304371721262645334 0.26563378039216056781 0.093937991893263433907 -0.33893781092982960823 0.15555001398889867215 -0.45140062406151115759 0.072714876469613415333 0.09199739699909437185 0.22540320139721004011 0.089654075963779791825 -0.44016312333636370413 0.39668658170481868597 -0.21253750884860697634 0.21511223368226273234 0.14210342380799123596 0.34219514062582784275 -0.52891111600415208205 -0.086749847637693652813 -0.099836969266270988999;0.48795164085210879223 0.45825088522594509266 0.12773663199969720328 0.095761426316599118636 0.183995923378191234 0.52281089363541044523 -0.2875546300031403546 -0.061744325117168132044 0.48298914135295906158 -0.23743244442605301869 -0.11624831472183091985 0.18369784600949581876 -0.23357885302715394871 0.49448290120353172172 0.79049103896070804787 -0.14758380515604219152 0.080558973560427044047 0.72673882541960144188 0.20390006508954100495 0.32190221771727378641 0.33750358278284847691 0.63274902844414493419 0.1804508631973970878 0.34200534613346073032 0.60830330313730884839;0.4748612363115037871 0.29444942893421999219 0.34566158469915952978 0.23382065529234752344 0.025755373817821818755 0.65542864236697284674 0.21766250702943681916 0.015222364975406845952 0.60150088130376289097 0.28776341134937288846 -0.026981462853959206627 0.75167998985042339122 -0.23649785991108940308 0.42085730171435747904 0.12826844699585560061 0.60137929364898701223 0.31816880705881489533 0.36846129266058130769 0.49989049071138530467 0.24296473963339704216 0.5453642261992008855 0.6348568594508461338 -0.077142746816244056607 -0.056719871255538192867 0.59364293365840181682;-0.0060866919376279847789 -0.49284346072402340777 -0.46203737087470236888 0.024020440785238621195 -0.51706190253667705381 -0.024228282654899884613 0.18320334837250748516 -0.49262857532693549167 -0.60269415370976986424 0.09070727946201087577 -0.03406320969945648286 0.21799737323314469228 0.093581404952677429976 -0.3794185785840415992 -0.26841901151270958215 0.15868166000471606303 -0.35690100904691068884 0.18479196686998264343 0.1427283310160990526 -0.51866528010619838973 0.12722055191172265687 -0.55642870134975608298 0.032561784168083938995 0.1092496547830728304 -0.22252279077593881129;-0.023257865141440958734 0.45484364936625870657 0.49896182769408015112 0.092153919643976719978 -0.041716620904444917661 -0.029734152657052904944 0.041896712447283983305 -0.17305966847347117876 -0.010309237001696560168 -0.027687522361772649165 0.54395498461255997746 0.011984337416714225047 0.65035209076564171049 -0.1729127191411340414 0.12132326457794208319 0.36489410944663802638 0.44990243788948575121 -0.20513477908955515816 -0.27149693786801976092 0.036895503866253669123 0.2029113764094206962 0.27378972799145279149 -0.26898195221441684177 0.60918376350793068674 0.42634573242081391653;-1.0533592080281226622 1.2785323641602792666 -0.79513895619489993738 -0.41055821122155006231 -0.91121090998232345815 1.2880483354066749602 -1.0170616948899238174 -1.0755129779453038719 -0.62726966927565319665 -0.24729531532090981427 -0.68999435038624490346 -0.46871603301911085593 -0.85557891556042342529 0.65840747612538541578 0.4945207530751348779 1.2757747206264540285 -0.44014217789573384376 -0.88856809425596794405 1.057011927546882335 -0.99489224801687425881 1.1471992600603004853 -0.57275542856053085483 0.69882021334265354007 -0.30209215542799666698 -0.88499020041749421051;0.67799383816724290153 0.34192553893837479562 0.073830386660717506331 -0.91388196140670319156 0.42395032106548308226 0.64734651853030100721 0.14335548148956703263 0.30976027847096643253 0.80754593486996717466 0.69111250434463822323 0.26816407343524228946 -0.23447572846029604565 0.70863674645795149409 -0.64380166050994291904 0.66970538158532255668 0.31142621987410079587 -0.90565301738883019489 -0.033227544381957206665 0.47990775428726484275 0.56738174585962486418 -0.92751351775149415424 -0.23275181739082922983 -0.84064790537546751903 0.20179051345118759198 0.22781216318489039274;0.43597922997361748809 0.39347283633025131877 0.15427845458910158238 -0.29707428218689457822 -0.55161859791422851451 -0.48643182153208736063 0.28931829431088690319 0.084509125015373026679 -0.53656924355189916653 0.018532727261170684613 -0.37678175019111098676 -0.13560089175029713116 0.47820748385840766703 -0.47449031183440409931 -0.12065484427269271284 0.13759196875463841625 0.16431223421539381535 -0.22720868329233445682 -0.47288616292530227803 -0.3424390505806249041 -0.10940219144470690604 -0.31961776977743477923 0.033091297665890369306 0.073369638346885646119 -0.22618181390310698742];

% Layer 2
b2 = 1.3536407803646217651;
LW2_1 = [1.3516879057074266957 -1.2101699457627752565 0.79939988339640988269 0.80253618081450184274 -3.967299340731312185 4.8345956079440854936 -1.0125278552882759353 1.2459648415331494586 2.3809603154687404292 -1.269428817726532932 -4.4194126765138799229 3.9369683256329475185 -1.3338725956371382253 -0.72031016396234048837 2.4355628738189620819 -1.495177782001118727 1.6523701434116080389 2.14765845706834968 1.1772314340866105731 -1.2574845794278199929 -2.4783937677974274827 -1.3155876650057511945 -1.1096479633129205933 1.0067529419101604038 2.503194610006687526 -1.3967278715064133099 1.1340923792190249486 -1.0737355035167557293 -0.62250671059818718511 2.2782820683061664191 -2.411671085756258659 -4.4403905393782858724 0.68940783412556139176 -0.81469959665841351626 -1.2686723113683007202 1.4004333456773045974 -1.3414029076949560704 -5.0155408075939247325 2.6602376818046038487 1.1152671576049457691];

% ===== SIMULATION ========

% Dimensions
Q = size(x1,1); % samples

% Input 1
x1 = x1';
xp1 = mapminmax_apply(x1,x1_step1);

% Layer 1
a1 = tansig_apply(repmat(b1,1,Q) + IW1_1*xp1);

% Layer 2
a2 = logsig_apply(repmat(b2,1,Q) + LW2_1*a1);

% Output 1
y1 = a2;
y1 = y1';
end

% ===== MODULE FUNCTIONS ========

% Map Minimum and Maximum Input Processing Function
function y = mapminmax_apply(x,settings)
y = bsxfun(@minus,x,settings.xoffset);
y = bsxfun(@times,y,settings.gain);
y = bsxfun(@plus,y,settings.ymin);
end

% Sigmoid Positive Transfer Function
function a = logsig_apply(n,~)
a = 1 ./ (1 + exp(-n));
end

% Sigmoid Symmetric Transfer Function
function a = tansig_apply(n,~)
a = 2 ./ (1 + exp(-2*n)) - 1;
end
